<?xml version="1.0"?>
<opencv_storage>
<opencv_ml_svm>
  <format>3</format>
  <svmType>C_SVC</svmType>
  <kernel>
    <type>LINEAR</type></kernel>
  <C>2.6699999999999999e+00</C>
  <term_criteria><epsilon>1.1920928955078125e-07</epsilon>
    <iterations>1000</iterations></term_criteria>
  <var_count>3780</var_count>
  <class_count>2</class_count>
  <class_labels type_id="opencv-matrix">
    <rows>2</rows>
    <cols>1</cols>
    <dt>i</dt>
    <data>
      0 1</data></class_labels>
  <sv_total>1</sv_total>
  <support_vectors>
    <_>
      9.12824571e-02 1.29666850e-02 1.15341783e-01 -1.21400720e-02
      1.21091940e-02 -2.82528135e-03 1.37392223e-01 -2.18226667e-02
      9.10715237e-02 -6.89532086e-02 -9.32797641e-02 -3.05471336e-03
      6.53799474e-02 1.06222525e-01 -5.32399816e-03 1.59867182e-02
      1.23325177e-01 6.21581823e-02 8.36623535e-02 -1.41405955e-01
      5.62053472e-02 2.71401070e-02 -2.23227404e-03 2.95312572e-02
      1.48720657e-02 1.91322272e-03 -2.24845037e-02 -1.09463140e-01
      -1.73300326e-01 -5.75162433e-02 -2.79077962e-02 -1.44461736e-01
      -3.37463021e-02 1.49947507e-02 -6.72710016e-02 -1.53066561e-01
      9.97275263e-02 1.25871018e-01 5.42287342e-02 3.13426666e-02
      1.17207933e-02 1.02407495e-02 8.29898492e-02 2.01670751e-02
      1.44915983e-01 -2.80890763e-02 -1.09064095e-01 -6.33772686e-02
      8.49571452e-02 -1.18419267e-02 -4.68120649e-02 1.07180774e-02
      -4.00479361e-02 -2.16607824e-02 3.34451757e-02 -2.28344612e-02
      4.20156233e-02 3.20547819e-02 -6.92530051e-02 2.68141422e-02
      6.45428672e-02 7.24099576e-02 8.18101168e-02 -3.61710228e-03
      -1.51585013e-01 -1.08467467e-01 -3.62679958e-02 -4.05223705e-02
      -5.44837788e-02 -5.48827881e-03 -8.64927471e-02 -8.49449337e-02
      2.17979670e-01 9.18000937e-02 1.54028714e-01 2.08580807e-01
      9.42381248e-02 5.74783050e-03 7.89669231e-02 -9.76257608e-04
      1.67410582e-01 -1.49383619e-02 -1.10292777e-01 -4.33530807e-02
      9.99688879e-02 5.31880669e-02 2.76464839e-02 1.63169399e-01
      3.72702852e-02 1.57643408e-02 3.91374268e-02 -2.51939129e-02
      7.59428740e-02 -6.12472370e-02 -2.56718602e-02 4.65049315e-03
      -1.08792763e-02 6.96855560e-02 1.39230397e-02 -1.60091907e-01
      -1.69438899e-01 -4.19919640e-02 -1.20410947e-02 6.85393140e-02
      -9.10874754e-02 -1.61105737e-01 -7.69136176e-02 -9.64079276e-02
      9.17100981e-02 6.44607991e-02 1.47042572e-01 9.77401957e-02
      -3.98127846e-02 -9.82930958e-02 5.06473631e-02 4.91808914e-02
      5.11296727e-02 -1.79239810e-01 -7.23365322e-02 1.16426533e-03
      5.78838810e-02 -3.55343036e-02 -8.16894695e-03 6.56158552e-02
      -1.44835263e-01 -7.31071085e-02 -8.17772187e-03 3.12790019e-03
      -9.51528996e-02 -1.73026808e-02 1.97815951e-02 -7.49984682e-02
      -8.49376023e-02 5.86686283e-02 1.34103537e-01 -2.82192566e-02
      -1.31056622e-01 -6.51931316e-02 -3.96509394e-02 9.83251818e-03
      4.02469235e-03 -1.31937549e-01 -4.64928932e-02 -3.72028947e-02
      1.49061739e-01 7.13279471e-02 -2.99233887e-02 7.24796727e-02
      -3.66855413e-02 -5.81083223e-02 7.38358796e-02 -1.26468763e-01
      -7.46477721e-03 3.90495593e-03 -3.64615731e-02 -5.92143573e-02
      2.57180054e-02 -1.11205086e-01 1.38401479e-01 4.22991812e-02
      -1.16125964e-01 -3.22208814e-02 -3.73251922e-02 -1.07682720e-01
      -2.95809228e-02 6.12238795e-02 5.71002699e-02 8.21548142e-03
      -1.43009257e-02 -3.04617509e-02 -9.62496698e-02 -8.14961195e-02
      -9.61058438e-02 1.51216127e-02 -7.39197358e-02 -3.39131691e-02
      8.17488600e-03 -5.01209609e-02 -9.53370035e-02 1.58869438e-02
      -2.42376942e-02 1.15019880e-01 6.45247996e-02 3.39294411e-02
      -2.22278293e-02 1.99420564e-02 -6.32265434e-02 6.61797896e-02
      -3.59010808e-02 6.80320570e-03 9.20234900e-03 -5.36037236e-03
      -5.01672886e-02 9.69928056e-02 1.19130433e-01 -6.35691956e-02
      9.29563423e-04 1.33873090e-01 -8.21108744e-02 6.90080076e-02
      -8.15752745e-02 1.18932193e-02 1.71269048e-02 3.19627784e-02
      -3.44641358e-02 8.01067501e-02 4.33523096e-02 2.28789896e-02
      -3.39648351e-02 -4.66249734e-02 -1.22858830e-01 3.20341177e-02
      8.89387578e-02 -1.39522962e-02 -2.88391151e-02 -2.50159670e-02
      -1.26616815e-02 9.34756398e-02 4.93814610e-02 5.76883368e-02
      -1.17520699e-02 2.66650170e-02 2.67591756e-02 6.11510500e-02
      4.32909392e-02 -8.06298926e-02 9.14638564e-02 3.95243149e-03
      8.27946439e-02 -4.13036756e-02 4.74263579e-02 4.73954044e-02
      1.43839926e-01 -3.95791456e-02 1.84862521e-02 -5.56993205e-03
      2.22546086e-02 -3.61129828e-02 -6.62216991e-02 -2.08991077e-02
      -4.65794317e-02 -1.90911479e-02 -6.31404147e-02 -6.87800571e-02
      -1.10240594e-01 -9.25087258e-02 -7.36857876e-02 -8.24321061e-02
      -3.96418534e-02 -2.82710772e-02 -2.92528160e-02 2.68202815e-02
      8.23074803e-02 1.05943151e-01 4.46925797e-02 2.87767611e-02
      -4.28306730e-03 -7.11086243e-02 2.81578116e-02 -8.34976789e-03
      5.48026673e-02 -1.54113946e-02 3.89338881e-02 -8.71989690e-03
      -9.58560128e-03 -4.57696430e-02 1.96497440e-02 3.81509848e-02
      4.71394882e-02 -2.46383599e-03 -4.80393395e-02 -1.00059517e-01
      5.55553772e-02 -3.24702896e-02 5.24106510e-02 -1.08543038e-01
      4.62434739e-02 -1.88913140e-02 5.95413744e-02 1.24378959e-02
      6.51413249e-03 -6.31099194e-02 -5.34680523e-02 -4.62923869e-02
      1.02435604e-01 2.78534889e-02 -1.13323152e-01 -8.40398520e-02
      3.10001001e-02 5.33554740e-02 9.18648317e-02 5.06633194e-03
      6.46756738e-02 -4.63850386e-02 -2.34451182e-02 -9.25751776e-03
      4.62376177e-02 1.01267882e-02 -3.89061756e-02 -1.20682651e-02
      1.78736914e-02 -8.96353498e-02 6.04551956e-02 9.90570560e-02
      1.04845539e-02 3.62797417e-02 8.97671282e-02 1.64029263e-02
      2.72151772e-02 6.31108508e-02 5.76561876e-02 2.38641649e-02
      2.24517789e-02 -5.49264252e-03 8.84804428e-02 -6.00089654e-02
      4.77780923e-02 1.87900551e-02 5.85018434e-02 -2.64002755e-03
      4.99051176e-02 -8.80690478e-03 -2.26094332e-02 -5.56811225e-03
      7.94849396e-02 7.65712038e-02 -6.30962523e-03 4.51544560e-02
      5.06560057e-02 6.40664250e-02 6.08348288e-02 -5.90266101e-02
      6.35416359e-02 -4.30279858e-02 7.81430006e-02 -3.54238674e-02
      4.55439463e-03 -4.14098725e-02 7.25999475e-02 -2.80317459e-02
      4.40130793e-02 -3.51679511e-02 8.48239884e-02 -1.10616423e-01
      3.36299799e-02 -6.42583380e-03 8.62602293e-02 -1.79124698e-02
      -7.35844299e-02 3.96055058e-02 7.99363479e-02 -2.17435379e-02
      -8.03109556e-02 -4.99007627e-02 4.14920226e-02 -1.89972557e-02
      9.67624336e-02 -7.90348351e-02 4.56010997e-02 8.55098441e-02
      8.53675529e-02 8.29628855e-02 3.96662168e-02 6.39413744e-02
      1.19006142e-01 -6.45150710e-03 -9.20847058e-02 6.64736331e-02
      -5.15374765e-02 -2.18982380e-02 -8.06672201e-02 2.67749894e-02
      -2.97411401e-02 -1.61386710e-02 1.27228737e-01 3.64011675e-02
      4.68118154e-02 2.33121160e-02 3.37549997e-03 -1.09710405e-02
      -4.71503095e-04 4.20945510e-02 -8.06268603e-02 -4.83346507e-02
      -2.11158823e-02 8.11421201e-02 -8.41711387e-02 -7.82819241e-02
      8.17926005e-02 -2.00231280e-02 4.07615528e-02 -2.29158020e-03
      1.79314520e-02 -6.38149008e-02 -3.35128717e-02 -1.25311747e-01
      8.96450430e-02 -7.90049136e-03 8.55624210e-03 -2.98088286e-02
      2.19643563e-02 -6.28675297e-02 -4.01910730e-02 -9.97019093e-03
      2.34177918e-03 1.06274270e-01 -3.76398452e-02 -1.24451770e-02
      1.09336294e-01 3.85165550e-02 2.21391842e-02 -1.47838313e-02
      -5.55121116e-02 -5.16045988e-02 -4.96029258e-02 -1.24102511e-01
      -2.79086083e-02 -5.52182011e-02 8.46464112e-02 -5.55221699e-02
      -8.13575909e-02 -1.71854720e-02 9.74769667e-02 -6.33631647e-02
      -5.74658848e-02 -3.11513357e-02 -1.15127172e-02 -5.69127128e-02
      5.65248877e-02 2.62765232e-02 6.15335628e-03 -1.04249135e-01
      5.60084060e-02 -6.01342730e-02 -1.02387071e-01 2.62031462e-02
      -3.50366607e-02 -7.33683035e-02 2.69469284e-02 -3.46315801e-02
      8.05118531e-02 -9.70367156e-03 6.35918230e-02 4.03172104e-04
      5.27622774e-02 -5.74616715e-02 -3.25689614e-02 9.64356065e-02
      -7.18275905e-02 -4.94836690e-03 3.62769142e-02 3.12084303e-04
      -2.55559036e-03 6.39468024e-04 9.33530275e-03 4.45770286e-03
      -3.05988733e-03 -3.23261629e-04 3.50591494e-03 -5.90787269e-02
      -7.07904324e-02 9.15303975e-02 -4.89455201e-02 1.52861523e-02
      -2.92337462e-02 -5.06092869e-02 -3.30241993e-02 -1.33074820e-01
      -1.08745724e-01 3.15861069e-02 -4.41471562e-02 -2.44864337e-02
      5.73081039e-02 -2.16709320e-02 1.27803283e-02 -6.65796995e-02
      6.19255938e-02 -4.10628170e-02 2.17435341e-02 -6.77144974e-02
      3.70961018e-02 4.42422591e-02 7.02271238e-02 -2.17317920e-02
      5.34346187e-03 1.53102770e-01 -3.22860703e-02 -2.30596326e-02
      2.52142977e-02 7.34312879e-03 -1.34267830e-04 -3.51454653e-02
      -8.79106224e-02 1.17330831e-02 -7.17618614e-02 3.16870655e-03
      5.19216321e-02 4.72126119e-02 -2.72612572e-02 -1.34658138e-03
      -5.69253415e-02 -1.77169796e-02 -1.79002210e-02 -3.68175283e-02
      1.78302787e-02 -2.67890631e-03 -1.48899462e-02 1.82442456e-01
      5.38667440e-02 7.57807866e-02 -6.33704960e-02 -8.66326392e-02
      7.88212344e-02 -1.46782085e-01 2.95124557e-02 -5.02820574e-02
      5.64567978e-03 -2.68243663e-02 6.33784980e-02 9.87351164e-02
      3.24559473e-02 -2.38167066e-02 4.53230785e-03 1.61648672e-02
      -1.92203429e-02 -8.29310790e-02 -4.80276719e-02 -8.05136412e-02
      -2.71987021e-02 -3.26338895e-02 6.58531263e-02 -3.76140215e-02
      1.24161011e-02 -5.76308258e-02 8.90086591e-02 -1.65677648e-02
      -4.09298465e-02 -3.83586250e-02 -4.18472588e-02 -9.81607884e-02
      8.51232931e-02 -7.27519020e-02 7.07031414e-02 -1.20741595e-02
      9.54510178e-03 -1.05247414e-03 4.39644270e-02 -2.32992712e-02
      4.11635339e-02 7.68499747e-02 -7.44374022e-02 -4.93402034e-02
      4.76843258e-03 5.04301526e-02 -5.57887815e-02 3.40116047e-03
      1.09674307e-02 2.09768508e-02 -7.69897848e-02 -5.27617633e-02
      -3.41820158e-02 4.36495729e-02 3.01439036e-02 -7.11794049e-02
      -6.97803572e-02 3.32993455e-02 5.80443069e-02 -4.11504470e-02
      -4.62267213e-02 -1.00684864e-02 -7.24036098e-02 -8.93115625e-03
      -6.33074269e-02 -2.56145969e-02 -6.67984933e-02 -8.11446980e-02
      1.39449686e-02 8.20230916e-02 5.62418886e-02 4.06724475e-02
      -2.42984947e-02 5.94614856e-02 3.65304500e-02 -4.66829119e-03
      9.95199606e-02 -8.54829699e-02 -1.35342747e-01 -8.92090797e-02
      -2.35042740e-02 5.42722344e-02 1.63073111e-02 2.44661421e-02
      -2.68580168e-02 -1.07257999e-03 1.11864075e-01 -6.70164227e-02
      -1.80800147e-02 -2.99201272e-02 -1.87597778e-02 7.88525119e-03
      -3.11004017e-02 2.23014094e-02 2.63507795e-02 6.21763282e-02
      -2.10144117e-01 8.67961720e-03 -5.66555075e-02 7.43597895e-02
      1.07008417e-03 -3.90855409e-02 -7.61494562e-02 -9.89076421e-02
      1.03020445e-01 3.67083438e-02 7.86377266e-02 3.50332446e-02
      -7.98501223e-02 1.44268125e-02 5.29035809e-04 -3.42487963e-03
      6.67283591e-03 8.98692477e-03 -6.15161769e-02 -2.91178208e-02
      2.16480754e-02 6.25318363e-02 -3.34215071e-03 -8.76954496e-02
      -6.76307827e-02 -5.48832454e-02 9.70835090e-02 -7.21767545e-02
      2.12742239e-02 3.79167423e-02 -1.26732886e-01 7.19686085e-03
      4.86836657e-02 6.82501867e-02 6.60344539e-03 2.55958196e-02
      -1.98625252e-01 -1.20923072e-01 -3.68361548e-03 1.71691589e-02
      -1.06518641e-01 -7.84397498e-02 -1.63002595e-01 -8.15364048e-02
      4.39919420e-02 8.01929682e-02 1.43061373e-02 6.47152886e-02
      -4.89360839e-03 1.82790924e-02 1.27451345e-02 8.49460885e-02
      1.05447881e-01 4.57040071e-02 6.58764541e-02 -3.40512097e-02
      -7.26588629e-03 5.55597432e-03 -1.14821084e-01 1.00304708e-02
      1.21436357e-01 -1.41948722e-02 1.13018267e-02 6.96250144e-03
      7.75787458e-02 -8.08588564e-02 6.80525526e-02 -1.46249905e-02
      7.54205137e-02 -4.44957279e-02 -5.02315909e-02 -3.42696607e-02
      -4.04219404e-02 -4.34792079e-02 -1.82363223e-02 -5.90532720e-02
      -8.02081153e-02 -2.55410559e-02 -7.30657652e-02 -1.02899723e-01
      -7.61305168e-03 1.12245612e-01 8.44621360e-02 1.27137259e-01
      -3.17731053e-02 -7.79453432e-04 1.50078088e-02 4.80751134e-02
      -1.22051211e-02 -2.42652353e-02 -2.38698814e-02 2.37423778e-02
      -2.92380825e-02 -4.79257740e-02 3.30990776e-02 5.84644638e-02
      3.15570831e-02 -2.95874272e-02 9.15626623e-03 -4.89034988e-02
      -4.01223749e-02 1.49026723e-03 9.21627041e-03 4.33005840e-02
      3.95892002e-03 -6.47590384e-02 9.92790014e-02 -1.30133897e-01
      -6.01348132e-02 -2.59311199e-02 -9.97687504e-02 1.00722209e-01
      -7.75706470e-02 -1.05170310e-02 -5.96457981e-02 -3.27562653e-02
      1.50938230e-02 9.77488682e-02 1.10331707e-01 4.90029454e-02
      -2.66108178e-02 1.20190069e-01 4.39380407e-02 -2.79205926e-02
      -3.65805775e-02 1.56683512e-02 -5.78145571e-02 -3.26695666e-02
      6.06955476e-02 2.13816781e-02 6.81906566e-02 6.03848584e-02
      -5.20018525e-02 -9.90065709e-02 -1.91409129e-03 9.16190271e-04
      7.84964561e-02 -1.96352415e-02 -3.13200951e-02 3.35919559e-02
      1.66323800e-02 -1.33933211e-02 6.45425096e-02 -4.69316132e-02
      -1.22388065e-01 -7.30326474e-02 -3.82127939e-03 -9.65250283e-02
      -4.75577265e-02 2.89325919e-02 -7.79830366e-02 -4.57830578e-02
      -3.62731237e-03 -4.72932495e-02 3.24445702e-02 5.49903363e-02
      -2.12132875e-02 -5.45195490e-02 -3.43424901e-02 9.94626209e-02
      8.87486618e-03 -2.12512054e-02 2.65683923e-02 1.08853763e-03
      -5.72645105e-02 1.92941818e-02 4.89045568e-02 3.69063988e-02
      -3.06285284e-02 -3.82682346e-02 5.89184389e-02 -5.70978969e-02
      -4.72547151e-02 -3.24614942e-02 5.43380193e-02 -1.28679186e-01
      -8.58266205e-02 -2.29815114e-02 -4.68033701e-02 -4.81590219e-02
      -5.94261624e-02 -1.15790799e-01 -6.16862811e-02 9.93895978e-02
      5.13523854e-02 4.21059169e-02 -1.04812272e-01 -8.53038877e-02
      2.03281455e-03 9.17318463e-02 5.02498001e-02 2.36786585e-02
      5.26532019e-03 -6.93395883e-02 4.19072248e-02 -7.85573646e-02
      -2.72466365e-04 2.80646421e-02 -1.67767107e-02 -9.15639196e-03
      -8.00886564e-03 -3.41938399e-02 4.22066636e-02 5.30145355e-02
      -4.10526209e-02 2.92546786e-02 4.63163443e-02 -6.01322427e-02
      8.41998309e-02 -6.69727661e-03 2.55605206e-02 -2.58515198e-02
      3.17162946e-02 -6.47746772e-02 -2.41868030e-02 2.01803222e-02
      3.51696424e-02 2.29620957e-03 -1.83299426e-02 4.56155092e-02
      8.68568048e-02 5.80315329e-02 -6.37183189e-02 -1.73840597e-02
      1.39389679e-01 -4.24317457e-02 4.05802252e-03 8.01979825e-02
      1.86726078e-02 -9.01619047e-02 -7.12012202e-02 9.09944475e-02
      1.94801725e-02 -3.29173654e-02 -2.19015088e-02 5.66803813e-02
      8.12888965e-02 3.42422985e-02 2.16468200e-02 8.70552137e-02
      7.27887377e-02 3.37605141e-02 -7.09947869e-02 -3.22991833e-02
      -7.18312040e-02 8.44175182e-03 1.08415127e-01 -6.08578846e-02
      -8.19340069e-03 5.18810190e-02 4.55481783e-02 -8.67685974e-02
      -8.56986940e-02 1.23434355e-02 2.31011156e-02 4.30245996e-02
      1.33058457e-02 -2.16936041e-02 7.50902742e-02 -5.05599864e-02
      1.23388246e-01 -2.50609331e-02 4.41815779e-02 2.76639331e-02
      2.99155191e-02 -8.30179304e-02 2.96331029e-02 -5.45136025e-03
      5.06055765e-02 -3.42383012e-02 -8.84405430e-03 2.48475485e-02
      2.82888971e-02 -5.70035763e-02 3.54644321e-02 -2.08697561e-02
      2.49823071e-02 4.31495793e-02 3.52979973e-02 1.97030809e-02
      -1.05634974e-02 -3.77640352e-02 5.36574088e-02 -5.71309775e-02
      5.46433181e-02 3.84648517e-03 -5.55407256e-02 -8.08932483e-02
      2.88684107e-02 -1.19147323e-01 -4.32785191e-02 4.49349731e-02
      1.60574652e-02 -3.68525870e-02 -2.35709995e-02 -1.15744740e-01
      7.19315931e-02 6.33509532e-02 -2.97711007e-02 1.44096054e-02
      -9.55554917e-02 1.38782160e-02 -5.30096181e-02 -5.08191995e-03
      2.49715876e-02 -1.80905182e-02 7.28113577e-02 -6.55459762e-02
      2.61639375e-02 -2.68264376e-02 4.93259020e-02 1.61242038e-02
      -4.44343835e-02 3.12462952e-02 2.71587614e-02 4.81323898e-02
      -1.19916387e-02 -1.53882012e-01 5.62153533e-02 -7.21342191e-02
      3.63796130e-02 2.57270131e-02 5.70607819e-02 -4.52943332e-02
      -6.04594350e-02 2.40535233e-02 2.27612834e-02 6.48019314e-02
      7.65117863e-03 3.86922583e-02 -5.83481714e-02 -1.09392134e-02
      1.08195573e-01 3.01300175e-03 9.17440876e-02 5.41797802e-02
      -3.63047719e-02 -6.76564872e-02 -4.80718464e-02 5.30562997e-02
      6.67121112e-02 2.24319589e-03 -7.17593282e-02 5.66744283e-02
      6.54040053e-02 -3.27595174e-02 1.28032982e-01 1.26724793e-02
      8.09009820e-02 1.91939324e-02 3.13498825e-02 -1.71924476e-02
      -3.94360609e-02 -3.24386694e-02 6.42408803e-02 -4.08093147e-02
      1.73230879e-02 -4.41224016e-02 9.87506658e-03 -1.33327574e-01
      -6.76687285e-02 -5.66984043e-02 1.21120408e-01 2.35080160e-02
      9.99510568e-03 -9.90656787e-04 -2.85324454e-02 -2.42072009e-02
      1.00726105e-01 -3.30155343e-02 1.03270775e-02 1.83721632e-03
      -4.96643148e-02 -1.58395488e-02 -1.12501577e-01 3.16689052e-02
      9.37334746e-02 5.70492819e-02 1.85689088e-02 1.28388271e-01
      2.55531725e-02 -3.00615020e-02 -7.20541412e-03 -3.99798118e-02
      4.72315811e-02 7.90275708e-02 -7.92580619e-02 -7.01832771e-02
      -2.51632873e-02 -2.75648311e-02 1.59184244e-02 -6.66014478e-03
      5.57010574e-03 -2.34953444e-02 6.03721142e-02 -7.58185461e-02
      2.11110376e-02 6.07783310e-02 7.28942752e-02 4.03745063e-02
      4.50939946e-02 9.51834619e-02 -8.23237523e-02 -1.62055250e-02
      5.99046703e-03 -5.11732139e-02 6.09041825e-02 1.07890749e-02
      1.46398339e-02 4.21739044e-03 1.27728963e-02 1.15957722e-01
      -2.74779629e-02 -2.33257990e-02 -4.91168462e-02 9.54266116e-02
      -2.11213194e-02 -1.76330823e-02 7.74152800e-02 2.80342950e-03
      5.33560738e-02 -3.83487530e-02 -2.53103953e-02 8.58865306e-02
      6.12434335e-02 -9.25653707e-03 -9.59475487e-02 -5.80477007e-02
      8.65286663e-02 -4.18821573e-02 4.39558960e-02 2.87161246e-02
      -6.99327514e-02 5.49999997e-02 3.23276296e-02 -1.93484016e-02
      4.10237461e-02 3.83164287e-02 -2.43509822e-02 -1.13873323e-02
      6.00751750e-02 5.81528693e-02 3.56568284e-02 -6.24540672e-02
      5.67124300e-02 2.55817585e-02 -1.50473351e-02 -2.34975629e-02
      1.12352379e-01 2.76323594e-02 -9.82463825e-03 -8.20939615e-03
      3.41944434e-02 2.05720235e-02 1.16189346e-02 2.12444700e-02
      1.34429678e-01 6.02097139e-02 1.12352736e-01 -4.37607914e-02
      3.41666341e-02 -1.06474891e-01 5.83108775e-02 1.57314222e-02
      3.22345528e-03 4.23676819e-02 -4.68046032e-02 4.11802046e-02
      7.87408277e-03 -6.07759245e-02 4.89971042e-02 -5.59172779e-02
      1.01249523e-01 -4.38632965e-02 5.11809774e-02 -2.69289836e-02
      2.78183296e-02 8.01845118e-02 4.63949554e-02 3.18247378e-02
      -1.88771859e-02 -6.60936385e-02 2.99361907e-02 -3.12839076e-03
      6.06731512e-02 -7.92231560e-02 1.92298088e-02 -3.41929607e-02
      -2.47872826e-02 -4.66545485e-02 -2.99163964e-02 -5.51641658e-02
      2.32909457e-03 -7.19979554e-02 -4.48246337e-02 1.25460690e-02
      6.94565475e-02 1.42710939e-01 -2.34655268e-03 -8.27886816e-03
      2.40601767e-02 -8.31989478e-03 -1.66311823e-02 9.47566051e-03
      -1.37157992e-01 7.19481707e-03 2.27703936e-02 -8.39466304e-02
      1.95854995e-02 4.22634743e-02 -8.97687599e-02 1.28288008e-02
      -1.96269397e-02 3.19965854e-02 6.87610283e-02 7.82685503e-02
      -3.55445631e-02 -2.99519524e-02 -6.92692026e-02 2.04296038e-02
      1.65124871e-02 7.21773272e-03 -2.75811907e-02 4.24903631e-02
      -4.25135940e-02 -3.13769234e-03 8.40235725e-02 -1.90027114e-02
      6.52852878e-02 4.09039594e-02 3.73279606e-03 2.40928796e-03
      -1.30019672e-02 -5.57661131e-02 -1.06805459e-01 -1.04931347e-01
      1.57014783e-02 -2.94160061e-02 9.81522426e-02 -1.01284198e-01
      -2.80706882e-02 -6.59474805e-02 -1.17014341e-01 8.06185696e-03
      6.96828365e-02 1.89902913e-02 -1.54483646e-01 -9.17088985e-02
      8.98895562e-02 4.12147529e-02 9.84173920e-03 1.24507315e-01
      -1.03249393e-01 -1.87871363e-02 8.39528628e-03 5.81633896e-02
      1.72281284e-02 -7.39424303e-02 -9.17778239e-02 -4.19510305e-02
      6.82952330e-02 2.80196648e-02 6.00751908e-03 -3.17742527e-02
      -5.19634709e-02 -3.94072682e-02 5.76677658e-02 -6.39381865e-03
      -3.23415175e-02 3.09218038e-02 -1.71217900e-02 9.13864076e-02
      3.75322215e-02 3.47834677e-02 -1.09007165e-01 -1.39337378e-02
      -9.45722014e-02 -5.05986996e-02 -4.11182530e-02 -3.70814614e-02
      1.36754569e-02 -1.26070723e-01 -1.26196500e-02 -8.06067288e-02
      4.93399836e-02 7.80094042e-02 6.79048970e-02 6.04142956e-02
      3.95195633e-02 5.11048287e-02 -1.25955243e-03 6.14392310e-02
      -1.92640908e-02 7.76927844e-02 -1.71079654e-02 -6.31732401e-03
      4.47119884e-02 -9.87358857e-03 -7.37835479e-04 -2.65434105e-02
      -6.25764579e-02 4.57455367e-02 7.38075897e-02 3.14393416e-02
      4.74015474e-02 -5.04206829e-02 6.27798662e-02 -2.61082593e-03
      -5.56055605e-02 5.18751182e-02 2.05096602e-03 -7.36740157e-02
      -1.08196512e-02 -8.04684460e-02 4.35447990e-04 -4.79884334e-02
      -8.71204287e-02 -1.73132364e-02 -8.20148215e-02 -8.76127332e-02
      -2.36811419e-03 3.66379432e-02 -2.25973297e-02 6.49869516e-02
      2.18826756e-02 -4.21395861e-02 5.05421907e-02 7.37776682e-02
      6.82156011e-02 -1.40232369e-01 5.72548136e-02 -7.15829954e-02
      -4.37634513e-02 8.35381672e-02 -2.97272224e-02 4.90841530e-02
      2.07864065e-02 -1.10889129e-01 3.61799598e-02 -3.19892690e-02
      3.03146932e-02 9.44177285e-02 6.19976502e-03 2.93285511e-02
      1.92111284e-02 8.36740881e-02 3.07979416e-02 2.89694760e-02
      -2.29935832e-02 -8.11231285e-02 3.32341343e-02 -4.77082916e-02
      3.68687771e-02 -7.07783643e-03 -2.86977030e-02 -5.35937920e-02
      1.52591076e-02 -1.03336349e-02 -1.88606866e-02 4.80064899e-02
      -3.62890922e-02 -2.96554831e-03 -5.87262819e-03 6.54253513e-02
      1.59765072e-02 -2.24848022e-03 -1.25674508e-03 2.86223572e-02
      -4.02506776e-02 2.72307284e-02 9.85981748e-02 -4.83173691e-02
      8.13426748e-02 -2.56384350e-02 1.09478541e-01 -2.20824964e-02
      3.25579476e-03 -4.03977782e-02 -7.51600135e-03 -3.92286889e-02
      7.94590563e-02 2.04206388e-02 1.18604183e-01 -5.81968809e-03
      -8.23583454e-03 3.60774323e-02 3.37077826e-02 -1.13825323e-02
      -7.54768625e-02 3.82398814e-03 -1.22492351e-01 -6.16645701e-02
      4.94708680e-02 3.74218822e-02 5.74922701e-03 2.97178142e-02
      7.89117664e-02 2.02556923e-02 -2.37707607e-02 3.66218351e-02
      -1.03026833e-02 -3.80398110e-02 -1.06333636e-01 4.58020670e-03
      5.17501757e-02 -5.91820478e-02 1.30698264e-01 -8.66276324e-02
      8.43017770e-04 -4.29079421e-02 2.28268467e-02 -6.36469796e-02
      -7.13120401e-02 5.02022021e-02 -1.18269995e-01 6.63109403e-03
      2.50605755e-02 -7.29397237e-02 5.99373830e-03 -1.71742782e-01
      3.60850664e-03 -4.52554896e-02 1.29770152e-02 -1.16317265e-03
      -5.37935197e-02 -7.91972801e-02 -4.65828329e-02 -1.20818643e-02
      6.54502138e-02 7.35322535e-02 9.10121351e-02 4.13634814e-02
      -3.38050425e-02 -5.94682954e-02 -7.48578161e-02 -2.16075219e-02
      -1.46782920e-02 -3.15517723e-03 2.33352296e-02 8.25886801e-02
      1.41600966e-01 8.30136836e-02 1.71531346e-02 -1.87402796e-02
      -7.67742619e-02 4.18364070e-02 1.72555931e-02 5.76966591e-02
      5.41955382e-02 -5.49675524e-02 1.70840826e-02 1.85310934e-02
      4.44002338e-02 1.91924817e-04 -6.58658445e-02 6.48107305e-02
      -4.79830764e-02 5.13635427e-02 4.18285728e-02 -3.20379585e-02
      1.52797448e-02 -9.01661292e-02 -1.20322406e-01 -7.42861778e-02
      -6.22271895e-02 -7.22217932e-02 -4.06144299e-02 -9.96810477e-03
      -4.76386920e-02 -1.35240734e-01 -5.21547124e-02 7.89214969e-02
      7.70852864e-02 -1.03462294e-01 -7.28734117e-03 9.40915421e-02
      6.61383644e-02 -8.87004957e-02 -1.44747812e-02 2.68403832e-02
      3.25649939e-02 -8.62928703e-02 7.13910982e-02 -4.98387739e-02
      -4.47907634e-02 -3.14368121e-02 -3.74941085e-03 1.74382962e-02
      -8.28165095e-03 5.95039427e-02 7.59165436e-02 -3.00187394e-02
      7.96188507e-03 -5.33006974e-02 1.12123333e-01 3.53497900e-02
      3.38812433e-02 4.17697728e-02 -1.72212683e-02 3.95161398e-02
      5.60258552e-02 3.67653742e-02 4.94710840e-02 4.10682493e-04
      -3.90345789e-02 -7.97855258e-02 6.16864010e-04 -6.85156463e-03
      -1.02584951e-01 -2.95301601e-02 -6.44043908e-02 -4.54171468e-03
      -9.17666499e-03 -7.55684543e-03 -7.24591017e-02 2.32991502e-02
      9.81347915e-03 6.08647382e-03 -1.73656158e-02 -8.12962577e-02
      5.78107722e-02 2.17276104e-02 7.67986476e-02 -8.30373242e-02
      6.86612446e-04 -1.04277119e-01 6.92887232e-02 -4.71740998e-02
      -1.12798505e-01 -1.26318103e-02 1.13160327e-01 -2.36053672e-02
      7.15930481e-03 1.57067515e-02 6.25380203e-02 2.31558084e-02
      4.07762192e-02 3.65996100e-02 1.26079451e-02 -6.05702912e-03
      2.38726288e-03 -6.57208264e-02 2.19941121e-02 5.92105351e-02
      6.94955587e-02 -2.46259067e-02 2.98402179e-02 1.25714213e-01
      1.11679748e-01 5.82226831e-03 5.74458428e-02 8.65658967e-06
      -5.47740869e-02 -7.76429381e-03 6.94297031e-02 -6.77624941e-02
      -7.66624808e-02 2.62262244e-02 2.29958612e-02 -3.58223845e-03
      -1.59910470e-02 1.35519793e-02 2.18419358e-02 -1.20911067e-02
      -3.92176248e-02 7.17688650e-02 -1.96449663e-02 9.95167345e-03
      8.89753252e-02 -3.84154208e-02 3.81466374e-03 -1.26957908e-01
      5.58119789e-02 -1.65730715e-02 5.69285229e-02 -8.05087611e-02
      5.38734309e-02 -2.55723391e-02 -2.32081767e-02 -5.43128960e-02
      2.50801593e-02 9.99494717e-02 5.06454036e-02 1.30155664e-02
      -1.81632198e-03 -2.73391344e-02 7.04025999e-02 -1.87854352e-03
      5.20659015e-02 1.25210524e-01 1.45072602e-02 -1.17440283e-01
      1.89166274e-02 -5.16750850e-02 8.96766782e-02 -1.59061216e-02
      4.31376733e-02 2.92333867e-02 -2.92518288e-02 3.32978219e-02
      -1.17954031e-01 -2.77536679e-02 6.76474571e-02 1.33660197e-01
      -2.18481235e-02 -1.13389254e-01 -7.92499781e-02 -1.04790516e-01
      1.35034069e-01 -9.90280695e-03 3.81012037e-02 -3.32728736e-02
      -6.08522706e-02 -1.46393571e-02 -1.97972287e-03 1.53525621e-02
      8.71931911e-02 -4.96842936e-02 4.43423055e-02 6.64445385e-02
      6.19175797e-03 2.39408109e-02 9.09074917e-02 9.37370881e-02
      3.82509008e-02 -2.44873874e-02 5.71075566e-02 -1.09046295e-01
      1.45503338e-02 -6.05235472e-02 -5.87773370e-03 -3.20478715e-02
      -1.27866447e-01 -2.13068593e-02 -3.43334541e-04 -2.77416073e-02
      8.43406245e-02 7.15910923e-03 6.20121509e-02 -1.17073044e-01
      -2.99960771e-03 5.20209875e-03 -8.09381232e-02 -3.93323153e-02
      -4.12350968e-02 6.94873417e-03 2.54884493e-02 -2.30199410e-04
      -1.42219633e-01 -8.04330036e-02 2.05204841e-02 3.37802880e-02
      4.25970815e-02 7.83860013e-02 -8.07871763e-03 4.51380499e-02
      4.34494764e-02 -9.90547463e-02 -6.69266470e-03 -3.82084735e-02
      8.15666467e-02 8.55715945e-02 -5.23219891e-02 2.96394397e-02
      1.72805376e-02 -1.28633797e-01 -4.70498502e-02 -1.15475275e-01
      -6.26436695e-02 -1.03623778e-01 9.18936450e-03 -1.00525700e-01
      2.77887681e-03 1.03159435e-02 3.93408583e-03 -6.28380920e-04
      6.14326261e-02 -4.52564023e-02 5.90071902e-02 -3.74436341e-02
      1.50336139e-02 -7.23367706e-02 2.98503060e-02 -1.62903760e-02
      -9.18332040e-02 -3.15377582e-03 5.61213344e-02 -1.07540287e-01
      -6.66977256e-04 -4.14163172e-02 -5.40287979e-02 -3.68888234e-03
      -6.33727852e-03 -2.84354948e-02 -2.15900168e-02 -2.76192483e-02
      -6.47070864e-03 6.08307421e-02 -3.98754701e-02 -3.93988937e-02
      -3.78369242e-02 -8.33498314e-02 2.57166326e-02 -3.25987339e-02
      -3.51029113e-02 -1.22410245e-01 6.19915538e-02 9.18985438e-03
      3.33780348e-02 3.43572199e-02 2.63595060e-02 -2.31253188e-02
      2.26355866e-02 1.30451262e-01 2.62233848e-03 2.02808231e-02
      2.59511415e-02 6.93581402e-02 -5.39878011e-03 1.00620128e-01
      -2.95439940e-02 7.18266517e-03 -3.74173783e-02 -4.84593138e-02
      4.83633690e-02 -3.09392693e-03 -6.00850992e-02 7.94586446e-03
      -3.82895879e-02 1.98748652e-02 7.20669627e-02 -1.07135461e-03
      -8.34422335e-02 -2.20284797e-02 -1.28910597e-02 -4.28552404e-02
      -4.99109067e-02 -2.11194507e-03 -2.77298875e-02 2.74518225e-02
      -2.06258576e-02 -2.40051690e-02 8.08802024e-02 3.26350285e-03
      9.41091776e-02 -2.46637575e-02 -5.77593334e-02 1.35574387e-02
      -5.32043017e-02 -6.29265383e-02 -1.28747851e-01 -6.36702077e-03
      5.14018275e-02 8.31764340e-02 9.11092907e-02 1.14503754e-02
      4.46368158e-02 1.87831447e-02 3.57277244e-02 -3.34503055e-02
      1.40357269e-02 -8.29154700e-02 1.41909579e-02 -5.07238768e-02
      2.72204634e-02 2.75585670e-02 -5.65653741e-02 -1.11433208e-01
      -8.37345272e-02 1.79022923e-02 2.47041695e-02 -2.31072353e-03
      -4.92429584e-02 -9.91165042e-02 1.04502793e-02 -1.26981452e-01
      1.15628010e-02 7.43580684e-02 8.16919804e-02 2.68293470e-02
      -1.07807823e-01 -8.02694410e-02 -4.66026217e-02 5.02973758e-02
      4.05909382e-02 -3.66108008e-02 -7.81796053e-02 3.93971875e-02
      1.90816745e-02 -3.86771485e-02 9.84741282e-03 1.05429508e-01
      -2.21541673e-02 -4.04566787e-02 5.78339724e-03 -4.25768532e-02
      -8.58335011e-03 -9.10996348e-02 -4.97516319e-02 -1.09494645e-02
      -1.18842341e-01 -4.07438837e-02 -7.29893297e-02 -1.44480631e-01
      -1.39593601e-01 -7.54728988e-02 -4.40379092e-03 -4.21917588e-02
      5.10100350e-02 -1.47543196e-02 -4.33193967e-02 -1.48711377e-04
      7.38465637e-02 7.50594959e-02 6.15198202e-02 -4.25684787e-02
      3.68815660e-02 -1.08121596e-01 -1.16165742e-01 3.01646218e-02
      -1.06438100e-02 -3.62387523e-02 -1.19809676e-02 -6.18814155e-02
      -4.71705105e-03 5.86120784e-03 7.26880413e-03 -1.85796265e-02
      6.08529598e-02 -5.56199402e-02 -7.84716289e-03 1.39786750e-02
      -1.63471308e-02 5.23790233e-02 -3.70112620e-02 -3.48501727e-02
      1.62958652e-02 2.51182523e-02 -1.11934438e-01 -5.20923436e-02
      -7.24142417e-02 2.48781703e-02 1.85372792e-02 -3.72091010e-02
      -3.10858563e-02 -6.57199025e-02 -4.35179211e-02 3.20728011e-02
      5.89664243e-02 1.23201227e-02 3.98134068e-02 -2.25124974e-02
      -1.00260533e-01 -5.88104576e-02 -8.95350575e-02 -1.30941467e-02
      -4.10855049e-03 4.93027344e-02 9.60954931e-04 -1.55554377e-02
      5.87986000e-02 2.14402489e-02 -2.00734418e-02 7.68083185e-02
      6.72678836e-03 3.79013717e-02 4.77759354e-02 -8.21232051e-03
      -9.58258510e-02 -9.18699577e-02 -1.12391391e-03 5.26086278e-02
      2.31756568e-02 -2.74306517e-02 -1.96380001e-02 2.24903859e-02
      -9.05137286e-02 -1.29967526e-01 3.32149398e-03 5.66116013e-02
      8.39785580e-03 6.69755116e-02 -1.34150209e-02 -1.76108978e-03
      -2.90784910e-02 -1.48044024e-02 3.83012332e-02 -2.41071638e-02
      -1.49566799e-01 -4.24864739e-02 -5.80837615e-02 -6.15599640e-02
      -1.75908152e-02 -2.96629462e-02 4.30373326e-02 -1.07945584e-01
      -2.10423414e-02 -4.19181474e-02 5.61814755e-02 1.29526602e-02
      -1.90884992e-02 -7.93005228e-02 6.29841834e-02 5.78568429e-02
      7.85614550e-02 -4.52535041e-02 9.59505048e-03 1.94432586e-02
      1.51237044e-02 2.51343995e-02 -4.20827754e-02 -5.16269319e-02
      -1.28546534e-02 -3.04745529e-02 -6.12472109e-02 5.37772477e-02
      2.62343101e-02 -5.25697209e-02 3.95079330e-02 -6.67164400e-02
      6.24696612e-02 1.03698015e-01 1.30254462e-01 -1.78345237e-02
      -9.23578665e-02 -5.32799438e-02 -7.53168687e-02 7.43314698e-02
      5.44656478e-02 1.47788739e-02 -6.61610961e-02 -4.12768461e-02
      -1.01483539e-02 2.98519060e-02 1.36742694e-02 5.40876202e-02
      -7.37667754e-02 -1.65520851e-02 -6.05998980e-03 6.44872859e-02
      -5.08561619e-02 -7.92731270e-02 7.50356987e-02 7.67829642e-02
      2.29287725e-02 -8.45019370e-02 6.49035862e-03 7.67695066e-03
      -4.32945900e-02 1.61799975e-02 5.62927127e-02 -1.33296968e-02
      -2.71233544e-02 -2.39387788e-02 -1.20929750e-02 1.13572199e-02
      -1.72089767e-02 9.15040076e-03 -3.02680433e-02 -5.89435883e-02
      -6.20338246e-02 6.92125037e-02 -2.14046352e-02 3.89912575e-02
      8.75846148e-02 -1.23663366e-01 -2.30787322e-02 9.27266106e-03
      -1.83216874e-02 -2.24254578e-02 3.03048361e-02 -5.37671335e-02
      -1.07978269e-01 -4.96193441e-03 -8.67436174e-03 4.04300988e-02
      -3.98544930e-02 2.54464727e-02 -6.16578199e-02 1.07674569e-01
      5.31872995e-02 -1.03523813e-01 2.78560948e-02 6.57208785e-02
      2.61843558e-02 -3.65296975e-02 6.48568571e-02 -7.28762802e-03
      9.97047424e-02 3.81526947e-02 4.89562117e-02 3.77285033e-02
      -4.43690903e-02 4.27481569e-02 3.15061174e-02 1.20584875e-01
      -3.84096093e-02 -1.36296442e-02 2.53807195e-02 2.01320779e-02
      5.37097864e-02 3.89540829e-02 -5.49528524e-02 2.67397240e-02
      6.89159483e-02 1.34522885e-01 7.45310038e-02 -8.13157670e-03
      -9.92880687e-02 -1.83278993e-02 4.15378697e-02 2.75741555e-02
      1.64990034e-02 -7.19506890e-02 1.61133353e-02 1.93650723e-02
      2.47992645e-03 -8.06951448e-02 6.51647300e-02 -5.17834397e-03
      -4.43746373e-02 -7.29664192e-02 -2.97215637e-02 -8.68282244e-02
      1.30576929e-02 -2.91091464e-02 5.73027392e-05 1.75264489e-03
      9.75230709e-03 4.37218584e-02 8.36298019e-02 -7.46041015e-02
      -8.38332176e-02 -3.48605611e-03 9.49704945e-02 -9.15593840e-03
      5.78272678e-02 -3.06146685e-02 -4.00883444e-02 -6.87511563e-02
      6.75617233e-02 -5.03593450e-03 4.50096466e-02 -1.93503480e-02
      -1.05970055e-02 3.78635875e-03 2.04296526e-03 1.98155455e-02
      -7.47517720e-02 -8.29726309e-02 9.35716480e-02 2.96312924e-02
      6.36667060e-03 -8.51396564e-03 -2.70960461e-02 8.90434894e-04
      9.78337973e-02 -4.49813008e-02 -6.03695698e-02 -4.78966981e-02
      2.70428099e-02 1.40386689e-02 5.22501580e-03 2.24104971e-02
      4.15375805e-04 -3.84643041e-02 3.54890302e-02 -6.17492385e-02
      -4.67689596e-02 -6.54704720e-02 1.78093985e-02 3.49108800e-02
      3.83392833e-02 1.05492352e-02 -3.88068322e-04 6.66867197e-02
      9.31495149e-03 4.81180698e-02 3.44575271e-02 -8.52632895e-02
      -1.53375894e-01 -9.54595953e-02 -4.91087623e-02 -2.66531724e-02
      -7.04024658e-02 5.40036000e-02 -1.37117098e-03 1.32034406e-01
      -1.69287417e-02 -5.58681376e-02 2.60558035e-02 1.85248647e-02
      1.13482922e-01 -2.81805079e-02 2.22643111e-02 -2.69117076e-02
      1.56237725e-02 -7.55254412e-03 -3.80200669e-02 3.16310627e-03
      1.89508498e-02 -1.04845427e-01 3.96553539e-02 -3.02287359e-02
      4.51720022e-02 9.86773372e-02 -5.66949956e-02 8.96319374e-03
      6.21894263e-02 1.82001747e-03 1.80518851e-02 4.02723365e-02
      2.37762164e-02 -5.95829189e-02 7.96858920e-04 -5.47912531e-02
      -6.02614358e-02 -7.15175495e-02 4.47044931e-02 7.50619173e-02
      3.83850671e-02 1.99260078e-02 -2.45586634e-02 1.42431986e-02
      -8.12406465e-02 -4.82254401e-02 -5.78197353e-02 2.21121274e-02
      7.64895184e-03 8.97585154e-02 9.17562470e-02 -2.63398364e-02
      2.01448612e-02 2.25823466e-02 -3.99737768e-02 -6.46997914e-02
      -5.84282205e-02 -5.00882696e-03 7.77760521e-02 6.65329695e-02
      2.28266586e-02 6.82211295e-02 7.08375722e-02 5.41242994e-02
      7.88455904e-02 2.79908590e-02 -3.36629041e-02 -9.05695707e-02
      -3.28857899e-02 -7.88840503e-02 1.52272373e-01 3.08588501e-02
      2.69991555e-03 -4.74115759e-02 5.02840653e-02 3.31884362e-02
      -7.07082003e-02 2.59278659e-02 6.14876337e-02 -4.42762561e-02
      6.00305721e-02 -8.04406479e-02 4.25068177e-02 2.22611099e-01
      1.29266679e-02 -1.76652204e-02 4.07440662e-02 2.65001785e-02
      5.57894371e-02 2.35321615e-02 9.93142724e-02 5.14783990e-03
      -3.09046563e-02 4.34725061e-02 -7.41975754e-02 -4.64917086e-02
      1.29740298e-01 -2.67095063e-02 9.68494862e-02 -1.02743648e-01
      6.00243285e-02 -7.85787851e-02 -2.18236726e-02 6.38011619e-02
      -2.16593407e-02 -4.88001332e-02 -2.75294986e-02 -6.24185540e-02
      1.76385045e-02 -3.47496793e-02 6.80176765e-02 -8.94373059e-02
      4.05910946e-02 5.21972105e-02 -8.94585922e-02 3.16498987e-02
      2.25339253e-02 -6.55504316e-02 2.81846449e-02 6.87412024e-02
      -6.26485562e-03 6.63094372e-02 -2.27630995e-02 1.30279079e-01
      3.21517624e-02 3.13412175e-02 5.85221983e-02 -5.06117158e-02
      -8.35383683e-02 -1.10143222e-01 -1.05104521e-02 5.76513633e-03
      3.27422023e-02 7.65385255e-02 4.82029766e-02 -6.24234378e-02
      -5.26383966e-02 3.91605571e-02 1.81036666e-02 4.63210121e-02
      6.20689541e-02 2.60411343e-03 -1.02942735e-01 -9.02282149e-02
      3.50031815e-02 -1.24450825e-01 -5.23312669e-03 -8.72772336e-02
      3.04828193e-02 -7.12230578e-02 2.62348223e-02 -2.26814356e-02
      1.01331770e-02 -1.14681059e-02 5.45431003e-02 1.04931578e-01
      8.73380825e-02 -5.72193637e-02 1.24723591e-01 4.56033200e-02
      -2.12784223e-02 -6.27479032e-02 8.33796114e-02 -9.30452794e-02
      -3.24580036e-02 -6.63544834e-02 1.32215107e-02 1.22374654e-01
      -1.12294005e-02 2.09960546e-02 8.13421607e-03 -2.55501848e-02
      7.11293891e-02 -4.12748475e-03 7.84292221e-02 4.85206302e-03
      1.80066451e-02 7.26713538e-02 -2.45781224e-02 -1.05920592e-02
      1.15761049e-02 -3.71094011e-02 -1.14356644e-01 -1.84827875e-02
      -6.11622743e-02 -7.27671981e-02 -3.62669192e-02 -4.98690940e-02
      1.72814165e-04 3.64034101e-02 5.04005663e-02 4.06961888e-02
      -4.29738797e-02 -9.92039889e-02 4.33223210e-02 3.40362191e-02
      -3.53574120e-02 -2.85788458e-02 1.63914133e-02 -5.19340411e-02
      7.97880962e-02 5.82771935e-02 1.32184075e-02 -6.01503216e-02
      -8.10422599e-02 -1.90022332e-03 -2.61970311e-02 -1.71214640e-01
      1.75902527e-02 2.50976235e-02 -5.31402715e-02 -7.44798258e-02
      4.25285753e-03 3.93901914e-02 2.99281906e-02 3.27160954e-02
      7.51328915e-02 -1.49167329e-02 -1.97987221e-02 3.51018645e-02
      6.97834194e-02 -1.37693277e-02 -5.01956195e-02 3.71258669e-02
      -1.02828830e-01 1.11784779e-01 7.66509250e-02 -1.18709750e-01
      -4.40072082e-02 -3.59250531e-02 4.25948054e-02 -1.87184685e-03
      3.27557251e-02 2.23757047e-02 5.32665253e-02 4.57802862e-02
      -6.45398814e-03 7.02762604e-02 8.00019428e-02 4.80092801e-02
      -1.02660082e-01 -4.27772105e-02 -7.95933008e-02 -5.82509022e-03
      2.19110604e-02 4.34747003e-02 -9.67864171e-02 -5.51250763e-02
      5.63623644e-02 2.00045947e-02 6.83457702e-02 -3.26304473e-02
      -9.81765538e-02 8.66218135e-02 1.41966259e-02 7.92744607e-02
      8.22220668e-02 -4.92468402e-02 1.12293856e-02 5.37820570e-02
      -6.27994835e-02 -2.14203654e-04 -9.44943875e-02 -4.45268713e-02
      -4.00872380e-02 2.37164311e-02 1.33855194e-01 1.98596753e-02
      -1.36326095e-02 -4.04920243e-02 -1.07694551e-01 7.34799281e-02
      1.71745047e-02 8.34066644e-02 3.34852152e-02 1.07064642e-01
      -6.24930896e-02 -5.59222698e-02 3.90559621e-02 -2.59206891e-02
      -3.88821475e-02 2.21951734e-02 -7.38599896e-02 1.78850498e-02
      -3.43528055e-02 -3.35747115e-02 -4.43352712e-03 -1.93807948e-02
      -4.66235243e-02 7.22735077e-02 -1.62902903e-02 -6.28343672e-02
      -5.36248870e-02 -6.66753277e-02 -8.05119518e-03 -6.80472404e-02
      -8.86135250e-02 -1.08771928e-01 -4.07927148e-02 -8.22772235e-02
      -4.05775271e-02 -4.19488735e-02 1.46454215e-01 -6.59657419e-02
      1.35699823e-03 -4.69365343e-03 -4.82591167e-02 6.63136840e-02
      1.36313677e-01 5.53354286e-02 6.29188865e-02 1.60812344e-02
      -1.32540330e-01 -7.92071745e-02 2.51751319e-02 -2.46047992e-02
      3.58580761e-02 1.22319032e-02 1.93052012e-02 -6.19083159e-02
      -2.20446265e-03 6.63939416e-02 -5.79689257e-02 3.29825059e-02
      3.97989452e-02 -4.11313698e-02 -4.93380660e-03 -2.77881487e-03
      -5.40055297e-02 1.46986754e-03 -5.37614003e-02 -1.22165762e-01
      4.11471687e-02 -8.22820142e-03 -1.75864659e-02 -4.31263587e-03
      -9.29262191e-02 2.72224229e-02 9.62508768e-02 -1.28222359e-02
      7.30181709e-02 9.78394877e-03 4.76592407e-02 4.09935825e-02
      6.81282654e-02 8.85518342e-02 4.53322083e-02 4.65199538e-02
      6.00081868e-03 -1.07589401e-01 -2.87563335e-02 1.06865559e-02
      -5.26652671e-02 -8.47602170e-03 3.67317833e-02 -1.38546392e-01
      -9.63342860e-02 -7.92758986e-02 -2.27889251e-02 -1.20086782e-02
      3.76422927e-02 -1.00902006e-01 -5.50107546e-02 2.19642278e-02
      -1.27344474e-01 8.51028413e-02 -1.29765878e-02 1.00068003e-01
      -1.18941523e-03 -5.54430671e-02 5.81535026e-02 -6.70655221e-02
      -9.85166058e-02 5.41941554e-04 1.21687993e-01 -6.74588233e-02
      -4.79183830e-02 -6.63160114e-03 -4.63948418e-05 -6.64717108e-02
      -1.33946929e-02 5.86294867e-02 -3.88439037e-02 -1.74204744e-02
      -3.17649953e-02 4.22516614e-02 -3.68967392e-02 -1.82524025e-01
      6.65644631e-02 -2.17456892e-02 4.39724773e-02 5.01443185e-02
      3.84978056e-02 -3.03980266e-03 2.99053732e-02 -5.55485711e-02
      -5.71651459e-02 -3.69433798e-02 -2.25015823e-02 -3.86642432e-03
      5.38794138e-02 -7.18326867e-02 -1.54319359e-02 -7.65225887e-02
      -3.97995934e-02 -1.52808032e-03 7.97686428e-02 -1.03763953e-01
      -1.86611358e-02 -1.16232485e-02 -1.59047171e-02 4.59717102e-02
      9.84791145e-02 8.34700912e-02 5.78457601e-02 5.39749376e-02
      1.94657948e-02 9.84421223e-02 2.81348638e-02 -9.36105289e-03
      -3.40793096e-02 9.42754224e-02 9.71478298e-02 2.99255792e-02
      7.87661895e-02 -2.17543133e-02 3.43219042e-02 -1.09808221e-01
      -2.42190454e-02 2.21770909e-02 -1.72975082e-02 -1.01224750e-01
      -8.52030814e-02 1.02914441e-02 -4.84551769e-03 7.14318380e-02
      -4.81440946e-02 -3.65400910e-02 1.03871375e-02 6.69836849e-02
      -3.77787128e-02 -4.43447800e-03 4.18207161e-02 -4.16780077e-03
      1.48656433e-02 -8.11403841e-02 7.24054277e-02 1.36829652e-02
      5.87809235e-02 1.28071532e-02 3.34828510e-03 5.62817901e-02
      1.21518329e-01 6.78313226e-02 1.92891508e-02 -3.09389234e-02
      5.48221618e-02 3.48182805e-02 3.63161899e-02 8.69754981e-03
      1.16034925e-01 4.84433956e-02 2.09877398e-02 -1.25448611e-02
      -6.58942088e-02 4.90698852e-02 4.20020223e-02 -1.70151010e-01
      4.49841395e-02 -7.70213306e-02 -4.87542227e-02 5.10283671e-02
      6.44734874e-02 4.17655930e-02 2.48852652e-02 2.26249527e-02
      -1.10589936e-02 -2.49624737e-02 6.99877366e-03 1.59437936e-02
      1.94249507e-02 5.51223196e-02 3.75464335e-02 -3.38525102e-02
      -4.85792123e-02 -2.21256725e-02 4.84873615e-02 1.48149801e-03
      1.31012022e-01 7.10154474e-02 4.91739996e-02 7.71804005e-02
      4.17228378e-02 -1.74793880e-03 9.73340273e-02 -5.32715917e-02
      -7.19195977e-02 8.00719932e-02 3.69985029e-02 -1.23626797e-03
      -1.14791449e-02 1.33360559e-02 5.16783111e-02 -7.64788017e-02
      2.56193988e-03 -5.97706512e-02 5.37014008e-02 6.92623202e-03
      5.55827320e-02 6.99032322e-02 6.01088405e-02 6.60220310e-02
      5.51856644e-02 -2.07071658e-03 1.40800225e-02 -1.45296585e-02
      3.56261767e-02 1.05817560e-02 2.04194933e-02 8.57937988e-03
      3.87719572e-02 -2.82767434e-02 9.82704163e-02 -4.32862490e-02
      1.42351771e-02 -1.92862786e-02 8.30263421e-02 2.73839049e-02
      1.13275750e-02 -2.91855484e-02 6.49902523e-02 6.23816811e-02
      -6.22685291e-02 1.22869834e-01 -2.46223602e-02 1.31964422e-04
      3.99932936e-02 1.43165085e-02 4.55320999e-02 7.46894570e-04
      1.30902454e-02 -4.10312414e-03 7.79540986e-02 5.14481775e-02
      2.58177910e-02 -2.33220030e-02 1.10575490e-01 7.84328431e-02
      2.27478575e-02 -1.01647060e-02 8.54124874e-03 1.50288632e-02
      -5.15781790e-02 -1.17980480e-01 -7.43958727e-02 -8.70145932e-02
      7.20304251e-02 -8.33117291e-02 1.07888296e-01 2.23304816e-02
      1.31687403e-01 4.85982895e-02 -6.71513304e-02 7.66506940e-02
      3.88321988e-02 5.54272346e-02 9.26204026e-02 2.19244901e-02
      -7.60281784e-03 1.66755766e-01 -3.27653438e-02 4.60653706e-03
      3.56316986e-03 3.70459445e-02 -3.88986506e-02 -3.61770093e-02
      -1.35805795e-03 2.14868058e-02 -4.32938337e-02 5.14714867e-02
      -8.29839206e-04 2.51209587e-02 -2.04548948e-02 4.22477648e-02
      -5.29417507e-02 1.11320857e-02 9.58114117e-02 5.01222461e-02
      9.05829743e-02 -2.69981176e-02 1.59234580e-04 -3.22731175e-02
      1.72887277e-03 -1.40991309e-04 3.78416181e-02 4.57224902e-03
      4.78262641e-02 4.23531979e-03 6.72974735e-02 9.92606208e-02
      1.48013812e-02 1.04174879e-03 -2.04159506e-02 4.60926630e-02
      2.38355668e-03 7.43341893e-02 -3.04971673e-02 1.65935736e-02
      1.02430731e-01 -5.56348898e-02 -9.89576150e-03 -8.46926123e-02
      -3.59423570e-02 -8.76852125e-02 5.61841652e-02 -5.11409156e-02
      9.63037484e-04 2.48426180e-02 4.52075340e-03 4.68184464e-02
      -8.08787495e-02 -1.22089975e-01 4.48403470e-02 5.96576892e-02
      -2.14750320e-02 1.03770398e-01 1.15876541e-01 -5.87497540e-02
      -1.30625758e-02 1.61905717e-02 -2.80404626e-03 -5.09639643e-02
      3.03450460e-03 -6.90102950e-02 2.41391752e-02 -2.54870970e-02
      -3.89078297e-02 1.21812172e-01 1.03489555e-01 7.07218647e-02
      1.01717681e-01 6.43861890e-02 -4.45015579e-02 -5.97859025e-02
      -6.32281378e-02 -2.17359103e-02 1.30508235e-02 -1.15977980e-01
      -1.56012401e-02 2.34696083e-03 -1.88209228e-02 -1.73590202e-02
      -5.14691137e-02 -1.01050928e-01 2.54789665e-02 4.26960178e-03
      6.37552561e-03 -2.67387684e-02 3.44946161e-02 3.28451917e-02
      -2.98548024e-02 2.59252284e-02 9.79934335e-02 -6.48248419e-02
      -6.65302873e-02 -5.06910048e-02 2.02435385e-02 -6.53002411e-02
      -9.71750170e-03 -6.55251220e-02 -7.46422336e-02 2.40210798e-02
      -2.96085402e-02 6.36868775e-02 6.90329447e-02 -7.13545308e-02
      -3.58465360e-03 -8.36615488e-02 1.36047779e-02 -5.55405356e-02
      8.80882144e-02 -3.71093638e-02 -2.98876557e-02 -6.41597807e-02
      -7.24383667e-02 -2.13960223e-02 -2.74342881e-03 2.49382481e-02
      -1.31753339e-02 7.82782286e-02 -1.72959212e-02 7.28334263e-02
      3.33199021e-03 -1.25338987e-01 -3.84175479e-02 -1.93871036e-02
      5.84494956e-02 -1.29671931e-01 1.62105203e-01 -8.19931328e-02
      4.33669463e-02 -5.91684990e-02 4.50144568e-03 3.65940183e-02
      -1.56505089e-02 -4.49513830e-02 5.16622402e-02 5.47966035e-03
      -3.84359397e-02 9.54352841e-02 6.93670809e-02 6.07062504e-02
      -5.46497926e-02 3.05527654e-02 6.52197301e-02 -6.24757074e-02
      5.17456681e-02 2.73859370e-02 5.86986132e-02 7.18568824e-03
      -8.08174629e-03 -5.67610040e-02 8.33522528e-03 -4.88641039e-02
      4.91165258e-02 -6.39167354e-02 -6.62013739e-02 4.32229489e-02
      3.28854285e-02 -4.13582474e-02 -6.37449250e-02 -2.00436357e-02
      -1.50790706e-01 -1.48699656e-02 5.77178299e-02 1.96811911e-02
      -5.92327751e-02 -3.55213843e-02 -7.19799614e-03 6.84044929e-03
      5.48031256e-02 -1.25178462e-03 -5.23358248e-02 -1.95245277e-02
      -4.95218486e-02 -7.18894601e-02 -9.88968532e-04 -3.63915879e-03
      2.06525866e-02 -1.29794292e-02 -1.34103745e-01 -1.95210706e-02
      6.04453012e-02 3.29944789e-02 6.89115301e-02 6.48637414e-02
      5.56538999e-02 7.00572180e-03 -5.81466295e-02 -4.50421423e-02
      3.83376470e-03 2.26740651e-02 -9.12051722e-02 4.68660519e-02
      -4.90141287e-02 1.03661172e-01 -7.74297342e-02 2.02775355e-02
      -8.64910111e-02 -3.15832421e-02 1.52158150e-02 5.35337031e-02
      -2.75077159e-03 3.59088592e-02 2.39031799e-02 4.86195087e-02
      -4.20342200e-02 8.11597928e-02 4.69369069e-03 -2.35650856e-02
      -3.04810349e-02 -1.44868776e-01 -7.37388134e-02 -1.11360066e-01
      3.22233513e-02 1.01364367e-01 -4.92134225e-03 -7.71933701e-03
      1.05136916e-01 9.06895772e-02 2.38675363e-02 -4.04401124e-02
      -1.53874122e-02 3.52124609e-02 -7.92742148e-02 -2.01228335e-02
      1.08644762e-03 -3.76998372e-02 -1.24860428e-01 5.24556302e-02
      -8.58461559e-02 4.39899489e-02 1.27074644e-02 -2.23334767e-02
      -9.38888863e-02 9.30495095e-03 7.75404088e-03 2.82372851e-02
      -4.04811203e-02 3.42190154e-02 3.50943767e-02 4.25897725e-02
      4.84995060e-02 1.88786313e-01 -7.75626302e-03 -4.26987186e-02
      -2.33166032e-02 -6.86369976e-03 -2.98902541e-02 -1.41911227e-02
      3.45978476e-02 -2.36436781e-02 -5.42173125e-02 -2.01771129e-02
      -2.73489393e-02 -2.85924394e-02 7.54969940e-02 -5.12119122e-02
      -4.53140847e-02 -1.61453150e-02 1.09049901e-02 1.39899524e-02
      -2.32001956e-04 -4.45450358e-02 -5.06267548e-02 -7.70190638e-03
      3.45669873e-02 1.01154916e-01 -2.82900054e-02 -5.91152087e-02
      -8.31111446e-02 1.16091333e-02 8.75307173e-02 -9.23357066e-03
      -2.73528397e-02 -6.92971721e-02 -9.19129625e-02 6.26602694e-02
      1.26335993e-01 9.27145556e-02 1.08357839e-01 -1.14679188e-01
      -7.42897689e-02 -1.50020318e-02 -9.58421826e-02 -1.92396948e-03
      1.28283044e-02 -2.44216975e-02 2.63151284e-02 -7.53044710e-02
      -2.53947452e-04 1.07103698e-01 4.17654030e-02 -1.28076263e-02
      -6.68861568e-02 -3.37054729e-02 -3.85988466e-02 1.94945876e-02
      2.04370134e-02 -1.72245391e-02 1.22858742e-02 -8.11942145e-02
      -4.93234629e-03 8.41035619e-02 -4.36288044e-02 -6.45349324e-02
      -2.27782484e-02 -1.29339263e-01 4.16956395e-02 5.33155240e-02
      5.63294180e-02 6.62687570e-02 -4.47703600e-02 6.81067035e-02
      -4.97686453e-02 4.04930562e-02 1.21858723e-01 -6.27835095e-02
      -1.86933056e-02 2.71669701e-02 6.34114631e-03 -9.79020726e-03
      -1.95119567e-02 1.53444121e-02 -1.72636118e-02 -2.69496273e-02
      4.10107635e-02 -1.96963735e-02 -4.97250967e-02 3.49681191e-02
      -2.34187837e-03 -9.31988358e-02 3.15818354e-03 4.09061648e-02
      -2.05709469e-02 -8.24691281e-02 3.15518342e-02 7.12137157e-03
      1.66371278e-02 -5.19465208e-02 3.85370888e-02 -2.92636305e-02
      7.86458142e-03 -1.29567444e-01 9.48034897e-02 8.46127868e-02
      2.76122652e-02 5.93692996e-02 7.26705184e-03 -2.78582200e-02
      4.19611670e-02 1.05659239e-01 1.16564326e-01 2.79959198e-02
      -2.30551437e-02 -1.52338788e-01 5.37087256e-03 4.21224199e-02
      3.34664248e-02 -2.12486200e-02 3.80244479e-02 -2.36330777e-02
      -6.24427013e-02 2.42661778e-02 1.98117737e-02 3.62261906e-02
      -5.58096394e-02 7.49039045e-03 -8.23061690e-02 1.08664408e-02
      8.97855312e-02 5.21278866e-02 -1.56950504e-02 5.25309891e-02
      5.78786759e-03 4.17913049e-02 3.72778601e-03 -1.19843498e-01
      -1.06938548e-01 -5.18979020e-02 5.58926128e-02 9.98381176e-04
      -2.59218868e-02 -5.29483408e-02 2.43885536e-02 4.13517170e-02
      1.62632130e-02 9.35880095e-02 3.20145227e-02 2.88427733e-02
      7.08456337e-02 6.95533827e-02 -6.92818826e-03 -1.25772581e-02
      1.15816571e-01 -7.48418830e-03 7.70670399e-02 -3.62202786e-02
      1.48878656e-02 -4.26280275e-02 1.55167924e-02 -1.22278199e-01
      6.53252052e-03 2.10493672e-04 -1.21078126e-01 -3.87174152e-02
      2.10182238e-02 1.00786816e-02 1.41453231e-02 4.43213357e-04
      -5.24399951e-02 -1.04397833e-02 -1.01099182e-02 -6.31784946e-02
      1.71508398e-02 2.12595146e-02 4.90410589e-02 8.84287134e-02
      1.22493051e-01 3.56006622e-02 5.40667959e-02 8.64171982e-02
      -3.10859992e-03 2.26369333e-02 1.13508932e-01 -5.44099277e-03
      3.18897851e-02 4.68635224e-02 -3.93556338e-03 7.29679018e-02
      6.62816465e-02 -3.27275097e-02 5.21463566e-02 -3.58972214e-02
      -2.51564756e-02 1.02705080e-02 -5.42136095e-02 4.42532226e-02
      -9.75071336e-04 -1.38168707e-02 -1.79449171e-02 -5.85216098e-03
      -3.68399508e-02 2.61855163e-02 1.21190492e-02 -5.82526699e-02
      3.69468555e-02 -5.46841770e-02 4.97496650e-02 8.31304956e-03
      -6.30695298e-02 1.40850469e-02 1.68589782e-03 -6.89569302e-03
      -2.06883177e-02 -5.91401607e-02 1.14942908e-01 -4.86712120e-02
      -3.01041324e-02 6.44452199e-02 4.10909541e-02 7.45025650e-02
      -2.19766162e-02 -1.05674431e-01 1.69056840e-02 1.04182437e-01
      1.55438438e-01 -2.61089485e-02 1.14491962e-01 -4.83506471e-02
      -8.43058992e-03 2.10934244e-02 7.71958902e-02 -5.81399240e-02
      -1.02280378e-02 -7.89794400e-02 1.97169371e-02 -1.10199992e-02
      3.83485965e-02 6.83797523e-03 1.99268591e-02 5.26752928e-03
      -1.21770883e-02 1.38674630e-02 -1.23829888e-02 2.57080384e-02
      3.39508383e-03 -2.13145874e-02 -1.26676783e-02 3.84117551e-02
      2.90183513e-03 -4.05043811e-02 -3.13144661e-02 -7.33979866e-02
      2.24322397e-02 8.98055434e-02 9.60112438e-02 7.36175925e-02
      1.59961749e-02 -3.30819236e-03 2.02042297e-01 -6.79076277e-03
      1.13400787e-01 1.03700563e-01 2.13616397e-02 4.83227074e-02
      -1.91202667e-02 -2.10342072e-02 3.39920558e-02 -1.38424054e-01
      8.20955914e-03 -8.97710696e-02 2.24336199e-02 -4.08230051e-02
      2.67832968e-02 7.26271868e-02 6.11491222e-03 -2.81370506e-02
      6.84825853e-02 -4.47713695e-02 1.33980513e-02 1.34189025e-01
      -2.01730877e-02 -6.28391877e-02 3.55862044e-02 4.43609543e-02
      -2.27703303e-02 -8.66353065e-02 -3.18753459e-02 -2.40330324e-02
      -2.10939627e-02 -6.52710274e-02 4.16411422e-02 -4.57390174e-02
      1.79471374e-02 -3.52679901e-02 -3.62573974e-02 2.14132424e-02
      1.08053014e-01 -2.96350606e-02 -1.17169775e-01 -6.60781786e-02
      3.00027244e-02 -6.48780093e-02 -1.90823823e-02 -9.45607573e-03
      -4.94761467e-02 -4.07793280e-03 -2.27430183e-02 -5.79243377e-02
      4.82847579e-02 1.33239292e-02 4.09326330e-02 6.90511316e-02
      -9.76024643e-02 4.06229272e-02 -1.85780022e-02 6.67396262e-02
      5.07301539e-02 -1.78661698e-03 -1.34631479e-03 -1.97575260e-02
      -5.63910455e-02 -1.11905523e-01 -5.07243723e-02 2.71052811e-02
      -4.21182439e-02 -1.23416940e-02 -1.30857322e-02 -2.10539941e-02
      2.59153284e-02 -1.29526258e-02 4.32336666e-02 2.80510578e-02
      -1.07466588e-02 2.17459109e-02 -2.03297287e-02 3.24963368e-02
      -5.47176152e-02 -6.06779046e-02 4.25987020e-02 -8.16908702e-02
      7.00130388e-02 -1.09692723e-01 -8.31786264e-03 4.53263819e-02
      6.52458295e-02 1.50643233e-02 -7.42130280e-02 2.77472194e-02
      -1.57550909e-02 -3.50615457e-02 -2.90221423e-02 1.28340796e-01
      3.45340632e-02 -7.94760510e-03 5.37979715e-02 7.30444193e-02
      9.78712551e-03 -2.86880005e-02 8.82181525e-02 -5.55870309e-02
      5.04327044e-02 1.26948152e-02 5.22130057e-02 -2.12292727e-02
      4.96759117e-02 6.46591410e-02 1.29659563e-01 2.41988394e-02
      9.69619583e-03 7.74088204e-02 -5.79094552e-02 -2.84671504e-02
      4.41883393e-02 -1.11323096e-01 -6.07459582e-02 -1.45419121e-01
      3.98214497e-02 -1.01433083e-01 5.60865663e-02 7.53218904e-02
      -4.86910976e-02 1.06107928e-01 -5.15879430e-02 -3.97359096e-02
      -1.18858954e-02 -5.48427068e-02 2.60971077e-02 -3.74305760e-04
      -2.25250944e-02 -1.05950467e-01 9.84689817e-02 2.74000950e-02
      -1.48304412e-02 -4.04166207e-02 -6.04556361e-03 3.29693295e-02
      -3.79127376e-02 2.19285581e-02 -6.48175972e-03 -5.26291989e-02
      -5.01507819e-02 1.33832186e-01 7.77504072e-02 4.21057604e-02
      3.08514051e-02 3.88982296e-02 -1.13189304e-02 -5.08319959e-02
      8.45215991e-02 -8.41019955e-03 -4.28780075e-03 -1.81255173e-02
      8.23594630e-03 7.78507665e-02 2.54344065e-02 -2.55504549e-02
      -2.53614970e-02 8.87596458e-02 2.47415714e-03 -2.24736035e-02
      8.30114186e-02 -1.82151031e-02 9.65425670e-02 9.19774175e-02
      5.98822348e-02 4.29471023e-02 -2.47620456e-02 -8.78088847e-02
      1.74173079e-02 -2.51783729e-02 -5.65298200e-02 -9.76756364e-02
      -3.08477525e-02 -1.16486326e-02 -1.05189467e-02 6.81548193e-02
      -4.38923091e-02 -1.62293296e-02 -6.17699735e-02 2.37032287e-02
      4.25224975e-02 -3.62045169e-02 4.02547531e-02 -6.60752654e-02
      6.20846860e-02 9.96714309e-02 5.01168109e-02 7.64466226e-02
      2.44127270e-02 -3.13405916e-02 7.23208534e-03 -8.31500813e-02
      -2.01521646e-02 7.84267206e-03 -2.51444727e-02 5.72125521e-03
      -1.07099332e-01 5.63192964e-02 -8.42779875e-02 1.13074239e-02
      -1.53740749e-01 3.84193845e-02 -5.88663807e-03 5.23181222e-02
      -1.59715116e-02 2.37735454e-02 7.09462091e-02 4.41380069e-02
      1.12725727e-01 4.54334877e-02 1.35568380e-02 -9.02661122e-03
      2.62432471e-02 -8.27261209e-02 2.86826864e-02 3.74088958e-02
      4.98849675e-02 -5.97324222e-02 -1.05070204e-01 -1.31972209e-02
      -1.83124952e-02 -3.10124122e-02 -6.08140649e-03 4.46518362e-02
      7.07390457e-02 -5.53739117e-03 -1.90425850e-02 -1.14062252e-02
      9.43669677e-02 3.16770449e-02 2.00590212e-02 -1.19752204e-02
      -1.49882017e-02 6.32266402e-02 -5.51857762e-02 -1.00274652e-01
      -1.00564130e-01 6.31106645e-03 3.14282887e-02 -1.53101340e-01
      -1.27488161e-02 -5.40998615e-02 1.17519759e-01 7.70803839e-02
      4.10034917e-02 1.25126973e-01 8.72589722e-02 4.81030159e-02
      1.13980863e-02 2.52891630e-02 -4.08665389e-02 4.85545248e-02
      -2.00341679e-02 -5.15180714e-02 -1.81880593e-01 4.41204011e-02
      3.89983952e-02 9.13748816e-02 6.18017949e-02 -3.11547387e-02
      -2.66593155e-02 -2.30175722e-02 2.83916071e-02 1.02234788e-01
      5.70774078e-02 -1.10591203e-01 -2.46148854e-02 6.01024404e-02
      -6.44607991e-02 1.68957353e-01 -2.17766259e-02 -6.36609644e-02
      -1.01086423e-01 -3.86274159e-02 6.80815205e-02 1.66256148e-02
      2.67817476e-03 -1.72564015e-02 -5.06676957e-02 2.72152722e-02
      7.48177320e-02 1.04046352e-01 7.34416246e-02 -4.28862795e-02
      -5.74442185e-03 7.86804035e-03 -8.59591067e-02 3.55705130e-03
      -5.01635186e-02 -3.18696909e-02 -1.05244815e-01 -4.68128212e-02
      -7.52293598e-03 4.34198417e-02 8.33227560e-02 5.72401425e-03
      -2.35263314e-02 6.12357073e-02 -1.09128514e-02 -1.03308141e-01
      1.90080181e-02 -8.60381797e-02 6.40270859e-02 -4.84210486e-03
      1.54640721e-02 9.08845514e-02 7.30945729e-03 -4.58683819e-02
      -4.06145155e-02 -5.33811450e-02 -7.80760078e-03 -1.03188520e-02
      5.87752126e-02 -8.72839838e-02 5.09238653e-02 6.35123402e-02
      1.37870014e-01 9.78598297e-02 8.20918828e-02 -4.68190387e-02
      -5.02585173e-02 -3.42044793e-02 -4.77676690e-02 5.20889349e-02
      4.03298438e-02 -1.67534295e-02 -5.35601340e-02 -1.66331336e-01
      3.93545814e-03 3.08283027e-02 -7.12976754e-02 -5.70199601e-02
      -1.22471176e-01 1.19835017e-02 -2.32725851e-02 1.52483573e-02
      -7.48337135e-02 -3.55844828e-03 -6.75956085e-02 3.13917175e-02
      5.38020730e-02 6.44130185e-02 -2.03455593e-02 -1.67616531e-02
      -1.24964174e-02 -1.33071989e-01 5.65552479e-03 -3.98301631e-02
      7.79481754e-02 2.08639521e-02 -4.08149511e-02 1.63948908e-01
      3.85844870e-03 1.31169662e-01 -8.98735970e-02 -3.66239622e-02
      -7.68641904e-02 2.15009339e-02 1.95294376e-02 1.60197951e-02
      4.23822962e-02 -2.42014322e-02 -1.59760062e-02 -1.21513687e-01
      6.79040104e-02 -3.91242877e-02 3.02138738e-02 2.53888313e-02
      -2.12115496e-02 -5.13242073e-02 -2.67249346e-02 -2.18188353e-02
      8.06029979e-03 2.20037047e-02 -3.80574986e-02 -1.77158490e-02
      7.93032870e-02 7.23054335e-02 3.82592194e-02 -4.38005216e-02
      -1.21219000e-02 4.03140411e-02 1.41134873e-01 1.06797978e-01
      1.67247485e-02 -6.81473762e-02 4.19057533e-02 6.53867051e-02
      8.08750987e-02 7.30131343e-02 9.25196558e-02 1.17736803e-02
      -1.50296286e-01 -2.49292888e-03 -5.33583127e-02 6.68590516e-02
      8.37197602e-02 8.47212679e-04 -4.31756787e-02 -3.40542756e-02
      9.09905434e-02 -7.95750041e-03 -6.25672983e-03 -5.39365932e-02
      3.22848111e-02 2.32947320e-02 -7.17653781e-02 -9.18939337e-02
      -6.47755712e-02 8.01176205e-02 -9.95115936e-02 -5.49967811e-02
      9.63064656e-02 -4.65203635e-02 -6.02549762e-02 -4.59281243e-02
      1.51544809e-02 -2.76823491e-02 8.30410570e-02 -5.08562848e-02
      5.60836978e-02 2.48062927e-02 1.13249190e-01 6.20874986e-02
      -5.51291858e-04 4.20431830e-02 1.70624466e-04 6.46651387e-02
      -3.46160159e-02 -7.75591210e-02 7.50488415e-02 -9.91164520e-02
      1.17498077e-01 1.60983037e-02 1.94721948e-02 7.64454231e-02
      7.55653083e-02 -4.33722027e-02 -4.55647409e-02 3.49653773e-02
      2.65277084e-02 -6.20013177e-02 -7.61347711e-02 1.24372421e-02
      8.20229948e-02 6.48649335e-02 -5.65745756e-02 3.34074236e-02
      6.17146306e-02 1.53545663e-01 1.49612324e-02 -3.19833979e-02
      -6.59040064e-02 7.70073980e-02 6.22543953e-02 -4.96283919e-02
      2.27866340e-02 2.71718446e-02 5.57363918e-03 7.59598389e-02
      1.25201896e-01 -1.01629104e-02 1.44533766e-02 8.24958384e-02
      -3.63526046e-02 6.62491247e-02 1.67679772e-01 -5.82507998e-02
      -3.91519442e-03 1.01955637e-01 3.69792134e-02 -8.33909586e-02
      5.66634573e-02 -9.90435183e-02 -1.35064195e-03 -4.58232574e-02
      -8.14752933e-03 -6.29892573e-02 -7.03981146e-02 2.87416130e-02
      -1.02826729e-02 -4.24678111e-03 1.14949215e-02 6.34454265e-02
      -2.05848529e-03 -2.98968162e-02 1.76524892e-02 4.35673520e-02
      4.04340588e-02 -7.71279782e-02 1.51305228e-01 -1.99017897e-02
      -9.75856464e-03 1.27223164e-01 -3.77644263e-02 -3.53281409e-03
      3.14410515e-02 1.32937551e-01 8.94242451e-02 -8.71240199e-02
      -3.06482483e-02 3.17116901e-02 1.24942511e-01 -1.04870752e-01
      -4.25994620e-02 7.40238354e-02 4.83357726e-04 4.76749148e-03
      2.19764151e-02 -5.92584498e-02 1.39374835e-02 -5.08607924e-02
      -5.35336137e-02 -8.77486262e-03 -8.11978709e-03 -1.26741007e-01
      -4.35503908e-02 3.56462002e-02 -1.51055127e-01 8.03346261e-02
      4.38655261e-03 4.68738005e-02 2.41282769e-02 7.84130543e-02
      7.44051561e-02 -1.64565351e-02 -5.35918633e-03 -6.26127571e-02
      8.26433599e-02 1.07352985e-02 6.15923740e-02 9.73490104e-02
      9.30971801e-02 -4.10993733e-02 -2.14491077e-02 7.88517743e-02
      -1.17574781e-02 9.07389969e-02 -1.76177416e-02 4.69454452e-02
      4.75559868e-02 9.99515876e-03 4.18196619e-02 9.93328542e-03
      1.31346462e-02 -5.86472265e-02 6.59981556e-03 -4.69720252e-02
      -1.76141150e-02 -8.34684521e-02 -3.65825109e-02 1.82577353e-02
      -7.68983588e-02 1.17455507e-02 -5.00927269e-02 -1.75249800e-02
      -5.71883991e-02 2.41633635e-02 -1.66086480e-02 -6.00732490e-03
      -1.53427925e-02 1.17314070e-01 6.93739802e-02 -8.31077993e-02
      5.84957562e-02 1.87576916e-02 -9.77601409e-02 -1.88508946e-02
      9.74993780e-03 -2.02175844e-02 -1.86046921e-02 3.62390541e-02
      -5.73744178e-02 3.41174863e-02 5.11155948e-02 -6.33003190e-02
      9.44009498e-02 -1.23631507e-02 2.55793817e-02 -3.08636390e-02
      5.80679476e-02 -8.44323039e-02 1.65412354e-03 -5.77384830e-02
      -4.33298796e-02 -1.28558353e-01 -5.08118942e-02 -6.52053133e-02
      -4.80196401e-02 4.50129956e-02 -3.65289263e-02 -5.46043739e-02
      3.46897431e-02 1.35491043e-02 -5.62192686e-02 1.97984837e-02
      -1.08150236e-01 -1.11403577e-01 5.52688725e-02 -2.21107695e-02
      1.06660435e-02 -5.62965311e-02 2.13631559e-02 7.19707161e-02
      1.82074700e-02 -3.41577418e-02 -1.57347415e-02 -9.21227597e-03
      6.50225207e-02 5.38441055e-02 9.56684873e-02 -1.19090471e-02
      5.21040708e-02 -4.25222926e-02 -1.15433469e-01 -8.79157335e-02
      4.48970236e-02 -1.26369029e-01 -5.71960397e-02 -4.44049165e-02
      -1.52355850e-01 -1.31124586e-01 6.02058619e-02 -4.20184992e-03
      -2.22649258e-02 2.70183627e-02 -4.80910577e-02 4.30200845e-02
      3.10718492e-02 -3.43816206e-02 1.13340281e-01 1.27257081e-02
      -7.41237774e-02 -6.99484944e-02 5.12376428e-03 -3.11215799e-02
      -8.67416896e-03 -3.30138858e-03 -1.26054034e-01 1.51578197e-02
      1.06314965e-01 3.84906307e-02 9.03763063e-03 -2.25948934e-02
      -9.87798255e-03 -2.63957743e-04 2.88825203e-03 -4.39418294e-02
      2.02301219e-01 1.83990508e-01 6.70183450e-02 -6.23953156e-02
      8.24649557e-02 -8.11438709e-02 -8.93287063e-02 -1.09307423e-01
      2.51514390e-02 -2.17033215e-02 -1.70430124e-01 -7.49497265e-02
      2.19498593e-02 4.15288843e-03 -1.11743614e-01 -2.45181229e-02
      -5.88961989e-02 -1.23585584e-02 4.04715650e-02 5.63653857e-02
      4.21221480e-02 -1.73368515e-03 1.18816078e-01 2.40536686e-02
      -5.35620973e-02 4.75600287e-02 -1.31023109e-01 -1.06785344e-02
      -1.26229171e-02 -1.71760879e-02 -3.66992899e-03 -6.53915107e-02
      -1.52049512e-02 4.94253710e-02 7.28301555e-02 1.63700413e-02
      1.00518335e-02 -1.79693289e-02 -6.27854513e-03 -1.72822494e-02
      6.42529503e-02 -8.26315060e-02 -4.42858450e-02 -1.24523841e-01
      -6.23776130e-02 -3.75684425e-02 2.33125389e-02 -6.77307397e-02
      -1.17916368e-01 -3.71771492e-03 6.58578379e-03 2.16513239e-02
      -4.30611819e-02 1.82044972e-02 8.14462360e-03 -6.28427491e-02
      1.54485777e-02 -1.00548439e-01 2.09551230e-02 -2.23650336e-02
      -1.22896396e-01 -7.40204426e-03 6.16800003e-02 8.69752541e-02
      6.01636693e-02 -8.90752207e-03 -8.17385539e-02 -2.83259675e-02
      -3.16776559e-02 -8.78987834e-03 1.02818631e-01 -1.67108942e-02
      -1.59867909e-02 3.24743502e-02 5.78148998e-02 -1.39376983e-01</_></support_vectors>
  <decision_functions>
    <_>
      <sv_count>1</sv_count>
      <rho>-7.4718268557725465e-01</rho>
      <alpha>
        1.</alpha></_></decision_functions></opencv_ml_svm>
</opencv_storage>
